<?xml version="1.0"?>
<opencv_storage>
<cascade>
  <stageType>BOOST</stageType>
  <featureType>HAAR</featureType>
  <height>24</height>
  <width>24</width>
  <stageParams>
    <boostType>GAB</boostType>
    <minHitRate>9.9500000476837158e-01</minHitRate>
    <maxFalseAlarm>5.0000000000000000e-01</maxFalseAlarm>
    <weightTrimRate>9.4999999999999996e-01</weightTrimRate>
    <maxDepth>1</maxDepth>
    <maxWeakCount>100</maxWeakCount></stageParams>
  <featureParams>
    <maxCatCount>0</maxCatCount>
    <featSize>1</featSize>
    <mode>BASIC</mode></featureParams>
  <stageNum>25</stageNum>
  <stages>
    <!-- stage 0 -->
    <_>
      <maxWeakCount>6</maxWeakCount>
      <stageThreshold>-8.1262201070785522e-01</stageThreshold>
      <weakClassifiers>
        <_>
          <internalNodes>
            0 -1 3 6.0047041624784470e-03</internalNodes>
          <leafValues>
            -5.1515150070190430e-01 8.2142859697341919e-01</leafValues></_>
        <_>
          <internalNodes>
            0 -1 84 -2.1269025746732950e-03</internalNodes>
          <leafValues>
            -6.4308059215545654e-01 4.4868183135986328e-01</leafValues></_>
        <_>
          <internalNodes>
            0 -1 18 -3.2045990228652954e-02</internalNodes>
          <leafValues>
            8.6562490463256836e-01 -3.5385659337043762e-01</leafValues></_>
        <_>
          <internalNodes>
            0 -1 42 -4.1230516508221626e-03</internalNodes>
          <leafValues>
            -5.7865643501281738e-01 5.2842819690704346e-01</leafValues></_>
        <_>
          <internalNodes>
            0 -1 8 2.4790104478597641e-02</internalNodes>
          <leafValues>
            -3.4202051162719727e-01 9.6084803342819214e-01</leafValues></_>
        <_>
          <internalNodes>
            0 -1 35 -1.0623008012771606e-02</internalNodes>
          <leafValues>
            -8.2991957664489746e-01 5.2838116884231567e-01</leafValues></_></weakClassifiers></_>
    <!-- stage 1 -->
    <_>
      <maxWeakCount>4</maxWeakCount>
      <stageThreshold>-4.6792075037956238e-02</stageThreshold>
      <weakClassifiers>
        <_>
          <internalNodes>
            0 -1 2 2.6360472664237022e-02</internalNodes>
          <leafValues>
            -3.6283186078071594e-01 8.5714286565780640e-01</leafValues></_>
        <_>
          <internalNodes>
            0 -1 110 -9.8494580015540123e-04</internalNodes>
          <leafValues>
            -8.2076203823089600e-01 3.8708636164665222e-01</leafValues></_>
        <_>
          <internalNodes>
            0 -1 19 -3.7847142666578293e-03</internalNodes>
          <leafValues>
            -8.2736897468566895e-01 3.4408885240554810e-01</leafValues></_>
        <_>
          <internalNodes>
            0 -1 57 6.9603682495653629e-03</internalNodes>
          <leafValues>
            -4.1513544321060181e-01 8.2896816730499268e-01</leafValues></_></weakClassifiers></_>
    <!-- stage 2 -->
    <_>
      <maxWeakCount>6</maxWeakCount>
      <stageThreshold>-2.6034072041511536e-01</stageThreshold>
      <weakClassifiers>
        <_>
          <internalNodes>
            0 -1 34 2.9620118439197540e-02</internalNodes>
          <leafValues>
            -4.2307692766189575e-01 7.6470589637756348e-01</leafValues></_>
        <_>
          <internalNodes>
            0 -1 4 1.5541756153106689e-01</internalNodes>
          <leafValues>
            -2.5842553377151489e-01 8.8340824842453003e-01</leafValues></_>
        <_>
          <internalNodes>
            0 -1 20 3.6345280706882477e-02</internalNodes>
          <leafValues>
            -3.1888505816459656e-01 8.1742680072784424e-01</leafValues></_>
        <_>
          <internalNodes>
            0 -1 126 -4.5634584967046976e-04</internalNodes>
          <leafValues>
            -7.6530337333679199e-01 4.1954785585403442e-01</leafValues></_>
        <_>
          <internalNodes>
            0 -1 21 2.8569024056196213e-02</internalNodes>
          <leafValues>
            -3.6623522639274597e-01 7.1007990837097168e-01</leafValues></_>
        <_>
          <internalNodes>
            0 -1 25 -9.0439707040786743e-02</internalNodes>
          <leafValues>
            8.9606952667236328e-01 -3.4104159474372864e-01</leafValues></_></weakClassifiers></_>
    <!-- stage 3 -->
    <_>
      <maxWeakCount>6</maxWeakCount>
      <stageThreshold>-2.9752126336097717e-01</stageThreshold>
      <weakClassifiers>
        <_>
          <internalNodes>
            0 -1 12 1.5327836386859417e-02</internalNodes>
          <leafValues>
            3.2710281014442444e-01 -8.3333331346511841e-01</leafValues></_>
        <_>
          <internalNodes>
            0 -1 102 -1.2585777789354324e-02</internalNodes>
          <leafValues>
            5.3967630863189697e-01 -5.1551502943038940e-01</leafValues></_>
        <_>
          <internalNodes>
            0 -1 117 5.4898774251341820e-03</internalNodes>
          <leafValues>
            3.8743758201599121e-01 -7.5212615728378296e-01</leafValues></_>
        <_>
          <internalNodes>
            0 -1 124 -2.8578834608197212e-03</internalNodes>
          <leafValues>
            -7.5675171613693237e-01 3.4376105666160583e-01</leafValues></_>
        <_>
          <internalNodes>
            0 -1 7 6.5440475940704346e-02</internalNodes>
          <leafValues>
            -4.0210694074630737e-01 8.5837680101394653e-01</leafValues></_>
        <_>
          <internalNodes>
            0 -1 53 1.0096075385808945e-01</internalNodes>
          <leafValues>
            -3.5382834076881409e-01 1.</leafValues></_></weakClassifiers></_>
    <!-- stage 4 -->
    <_>
      <maxWeakCount>4</maxWeakCount>
      <stageThreshold>-4.6282929182052612e-01</stageThreshold>
      <weakClassifiers>
        <_>
          <internalNodes>
            0 -1 101 -2.2616377100348473e-03</internalNodes>
          <leafValues>
            -1. 2.5000000000000000e-01</leafValues></_>
        <_>
          <internalNodes>
            0 -1 118 -1.4927697367966175e-02</internalNodes>
          <leafValues>
            7.9914975166320801e-01 -4.0072774887084961e-01</leafValues></_>
        <_>
          <internalNodes>
            0 -1 129 -4.2673880234360695e-03</internalNodes>
          <leafValues>
            -7.9831951856613159e-01 3.5312891006469727e-01</leafValues></_>
        <_>
          <internalNodes>
            0 -1 28 -1.1374114546924829e-03</internalNodes>
          <leafValues>
            -6.2756675481796265e-01 4.8621794581413269e-01</leafValues></_></weakClassifiers></_>
    <!-- stage 5 -->
    <_>
      <maxWeakCount>5</maxWeakCount>
      <stageThreshold>-6.7333227396011353e-01</stageThreshold>
      <weakClassifiers>
        <_>
          <internalNodes>
            0 -1 71 3.3403644920326769e-05</internalNodes>
          <leafValues>
            -5.1898735761642456e-01 4.7368422150611877e-01</leafValues></_>
        <_>
          <internalNodes>
            0 -1 38 -6.8327714689075947e-03</internalNodes>
          <leafValues>
            -7.6630187034606934e-01 4.1224789619445801e-01</leafValues></_>
        <_>
          <internalNodes>
            0 -1 130 -1.4697510050609708e-03</internalNodes>
          <leafValues>
            -6.6911584138870239e-01 3.3139878511428833e-01</leafValues></_>
        <_>
          <internalNodes>
            0 -1 64 -1.4234671369194984e-02</internalNodes>
          <leafValues>
            9.2579656839370728e-01 -2.7884691953659058e-01</leafValues></_>
        <_>
          <internalNodes>
            0 -1 113 -3.4090108238160610e-03</internalNodes>
          <leafValues>
            -7.6202458143234253e-01 3.8136994838714600e-01</leafValues></_></weakClassifiers></_>
    <!-- stage 6 -->
    <_>
      <maxWeakCount>3</maxWeakCount>
      <stageThreshold>-1.7572866380214691e-01</stageThreshold>
      <weakClassifiers>
        <_>
          <internalNodes>
            0 -1 93 1.0649228934198618e-03</internalNodes>
          <leafValues>
            -4.1747573018074036e-01 7.3076921701431274e-01</leafValues></_>
        <_>
          <internalNodes>
            0 -1 83 4.8102386062964797e-04</internalNodes>
          <leafValues>
            -4.0231525897979736e-01 7.8060525655746460e-01</leafValues></_>
        <_>
          <internalNodes>
            0 -1 26 9.7854551859200001e-04</internalNodes>
          <leafValues>
            -4.8776322603225708e-01 6.4406234025955200e-01</leafValues></_></weakClassifiers></_>
    <!-- stage 7 -->
    <_>
      <maxWeakCount>5</maxWeakCount>
      <stageThreshold>-4.6356147504411638e-04</stageThreshold>
      <weakClassifiers>
        <_>
          <internalNodes>
            0 -1 6 1.6692368313670158e-02</internalNodes>
          <leafValues>
            -4.7252747416496277e-01 5.9375000000000000e-01</leafValues></_>
        <_>
          <internalNodes>
            0 -1 120 -4.9123093485832214e-03</internalNodes>
          <leafValues>
            6.2906253337860107e-01 -4.0689036250114441e-01</leafValues></_>
        <_>
          <internalNodes>
            0 -1 55 1.0231760144233704e-01</internalNodes>
          <leafValues>
            -2.8031831979751587e-01 8.1819856166839600e-01</leafValues></_>
        <_>
          <internalNodes>
            0 -1 63 1.7608543566893786e-04</internalNodes>
          <leafValues>
            -5.1301681995391846e-01 5.7537245750427246e-01</leafValues></_>
        <_>
          <internalNodes>
            0 -1 107 -3.2628183253109455e-03</internalNodes>
          <leafValues>
            6.6672331094741821e-01 -4.5205277204513550e-01</leafValues></_></weakClassifiers></_>
    <!-- stage 8 -->
    <_>
      <maxWeakCount>6</maxWeakCount>
      <stageThreshold>-8.2802981138229370e-01</stageThreshold>
      <weakClassifiers>
        <_>
          <internalNodes>
            0 -1 85 6.7308137658983469e-04</internalNodes>
          <leafValues>
            -3.8775509595870972e-01 5.7894736528396606e-01</leafValues></_>
        <_>
          <internalNodes>
            0 -1 23 1.2406965717673302e-02</internalNodes>
          <leafValues>
            -3.0326023697853088e-01 7.9418992996215820e-01</leafValues></_>
        <_>
          <internalNodes>
            0 -1 87 1.2480423320084810e-03</internalNodes>
          <leafValues>
            -3.3817955851554871e-01 6.7475193738937378e-01</leafValues></_>
        <_>
          <internalNodes>
            0 -1 103 2.3290000855922699e-02</internalNodes>
          <leafValues>
            -2.6216360926628113e-01 8.4196150302886963e-01</leafValues></_>
        <_>
          <internalNodes>
            0 -1 9 2.1061606239527464e-03</internalNodes>
          <leafValues>
            -3.5955795645713806e-01 6.8033325672149658e-01</leafValues></_>
        <_>
          <internalNodes>
            0 -1 112 -6.3766343519091606e-03</internalNodes>
          <leafValues>
            7.1786379814147949e-01 -2.7456349134445190e-01</leafValues></_></weakClassifiers></_>
    <!-- stage 9 -->
    <_>
      <maxWeakCount>6</maxWeakCount>
      <stageThreshold>-1.1895384788513184e+00</stageThreshold>
      <weakClassifiers>
        <_>
          <internalNodes>
            0 -1 56 3.4781508147716522e-03</internalNodes>
          <leafValues>
            -3.1092438101768494e-01 8.8888889551162720e-01</leafValues></_>
        <_>
          <internalNodes>
            0 -1 33 1.2255255132913589e-02</internalNodes>
          <leafValues>
            -3.4468454122543335e-01 7.1038848161697388e-01</leafValues></_>
        <_>
          <internalNodes>
            0 -1 73 8.5048852488398552e-03</internalNodes>
          <leafValues>
            -3.3325964212417603e-01 8.7549036741256714e-01</leafValues></_>
        <_>
          <internalNodes>
            0 -1 39 -3.0952980741858482e-03</internalNodes>
          <leafValues>
            -6.3778895139694214e-01 4.3862384557723999e-01</leafValues></_>
        <_>
          <internalNodes>
            0 -1 14 2.7823252603411674e-03</internalNodes>
          <leafValues>
            -3.8413733243942261e-01 7.5288993120193481e-01</leafValues></_>
        <_>
          <internalNodes>
            0 -1 17 -3.1911837868392467e-03</internalNodes>
          <leafValues>
            7.0170468091964722e-01 -3.7855693697929382e-01</leafValues></_></weakClassifiers></_>
    <!-- stage 10 -->
    <_>
      <maxWeakCount>4</maxWeakCount>
      <stageThreshold>-1.1470858752727509e-01</stageThreshold>
      <weakClassifiers>
        <_>
          <internalNodes>
            0 -1 59 -2.3793338332325220e-03</internalNodes>
          <leafValues>
            -4.2857143282890320e-01 5.3125000000000000e-01</leafValues></_>
        <_>
          <internalNodes>
            0 -1 54 -4.4144690036773682e-05</internalNodes>
          <leafValues>
            3.6409327387809753e-01 -5.5353993177413940e-01</leafValues></_>
        <_>
          <internalNodes>
            0 -1 62 -2.3854334722273052e-04</internalNodes>
          <leafValues>
            -5.1017242670059204e-01 4.5163157582283020e-01</leafValues></_>
        <_>
          <internalNodes>
            0 -1 115 -1.8844782971427776e-05</internalNodes>
          <leafValues>
            5.0125944614410400e-01 -4.9987939000129700e-01</leafValues></_></weakClassifiers></_>
    <!-- stage 11 -->
    <_>
      <maxWeakCount>5</maxWeakCount>
      <stageThreshold>-2.4974924325942993e-01</stageThreshold>
      <weakClassifiers>
        <_>
          <internalNodes>
            0 -1 106 3.9376025088131428e-03</internalNodes>
          <leafValues>
            -3.2142856717109680e-01 7.2093021869659424e-01</leafValues></_>
        <_>
          <internalNodes>
            0 -1 37 6.9130596239119768e-04</internalNodes>
          <leafValues>
            -3.4857481718063354e-01 5.8360826969146729e-01</leafValues></_>
        <_>
          <internalNodes>
            0 -1 75 4.5485608279705048e-03</internalNodes>
          <leafValues>
            -3.5659113526344299e-01 8.7280994653701782e-01</leafValues></_>
        <_>
          <internalNodes>
            0 -1 10 3.2033223658800125e-02</internalNodes>
          <leafValues>
            4.3520754575729370e-01 -6.2135094404220581e-01</leafValues></_>
        <_>
          <internalNodes>
            0 -1 52 1.2475749826990068e-04</internalNodes>
          <leafValues>
            4.6601316332817078e-01 -5.5971777439117432e-01</leafValues></_></weakClassifiers></_>
    <!-- stage 12 -->
    <_>
      <maxWeakCount>6</maxWeakCount>
      <stageThreshold>-7.7141320705413818e-01</stageThreshold>
      <weakClassifiers>
        <_>
          <internalNodes>
            0 -1 80 7.8023457899689674e-03</internalNodes>
          <leafValues>
            -3.2710281014442444e-01 6.2500000000000000e-01</leafValues></_>
        <_>
          <internalNodes>
            0 -1 5 -4.4213974615558982e-04</internalNodes>
          <leafValues>
            -4.7015774250030518e-01 5.0443679094314575e-01</leafValues></_>
        <_>
          <internalNodes>
            0 -1 45 -6.0134716331958771e-03</internalNodes>
          <leafValues>
            7.1093958616256714e-01 -3.7373256683349609e-01</leafValues></_>
        <_>
          <internalNodes>
            0 -1 125 -3.0019546393305063e-03</internalNodes>
          <leafValues>
            -7.2160458564758301e-01 3.4202811121940613e-01</leafValues></_>
        <_>
          <internalNodes>
            0 -1 109 1.7796173691749573e-02</internalNodes>
          <leafValues>
            -2.6595130562782288e-01 8.4251201152801514e-01</leafValues></_>
        <_>
          <internalNodes>
            0 -1 131 -4.7321620513685048e-04</internalNodes>
          <leafValues>
            -7.4609142541885376e-01 3.2350307703018188e-01</leafValues></_></weakClassifiers></_>
    <!-- stage 13 -->
    <_>
      <maxWeakCount>6</maxWeakCount>
      <stageThreshold>-3.6631253361701965e-01</stageThreshold>
      <weakClassifiers>
        <_>
          <internalNodes>
            0 -1 41 -8.8032167404890060e-03</internalNodes>
          <leafValues>
            8.0000001192092896e-01 -2.3199999332427979e-01</leafValues></_>
        <_>
          <internalNodes>
            0 -1 99 5.1979441195726395e-02</internalNodes>
          <leafValues>
            -1.8716639280319214e-01 8.4296649694442749e-01</leafValues></_>
        <_>
          <internalNodes>
            0 -1 123 -1.0291424114257097e-03</internalNodes>
          <leafValues>
            -6.5279531478881836e-01 2.9872569441795349e-01</leafValues></_>
        <_>
          <internalNodes>
            0 -1 46 4.3520675972104073e-03</internalNodes>
          <leafValues>
            -3.1357023119926453e-01 6.6641950607299805e-01</leafValues></_>
        <_>
          <internalNodes>
            0 -1 82 -1.6119938343763351e-02</internalNodes>
          <leafValues>
            8.1910532712936401e-01 -2.8183513879776001e-01</leafValues></_>
        <_>
          <internalNodes>
            0 -1 111 6.1428558547049761e-04</internalNodes>
          <leafValues>
            3.4953349828720093e-01 -7.3480314016342163e-01</leafValues></_></weakClassifiers></_>
    <!-- stage 14 -->
    <_>
      <maxWeakCount>6</maxWeakCount>
      <stageThreshold>-8.2655674219131470e-01</stageThreshold>
      <weakClassifiers>
        <_>
          <internalNodes>
            0 -1 36 -2.0357435569167137e-03</internalNodes>
          <leafValues>
            -6.6666668653488159e-01 2.5233644247055054e-01</leafValues></_>
        <_>
          <internalNodes>
            0 -1 88 6.6846748813986778e-03</internalNodes>
          <leafValues>
            -2.3963184654712677e-01 8.2985317707061768e-01</leafValues></_>
        <_>
          <internalNodes>
            0 -1 121 -1.5884449239820242e-03</internalNodes>
          <leafValues>
            -4.7956761717796326e-01 3.6081382632255554e-01</leafValues></_>
        <_>
          <internalNodes>
            0 -1 61 1.2886978220194578e-03</internalNodes>
          <leafValues>
            -3.8310793042182922e-01 5.2730619907379150e-01</leafValues></_>
        <_>
          <internalNodes>
            0 -1 60 -1.9552945159375668e-03</internalNodes>
          <leafValues>
            -6.6361635923385620e-01 3.5119450092315674e-01</leafValues></_>
        <_>
          <internalNodes>
            0 -1 92 8.7498193606734276e-03</internalNodes>
          <leafValues>
            -3.2778030633926392e-01 7.2683829069137573e-01</leafValues></_></weakClassifiers></_>
    <!-- stage 15 -->
    <_>
      <maxWeakCount>7</maxWeakCount>
      <stageThreshold>-3.7427729368209839e-01</stageThreshold>
      <weakClassifiers>
        <_>
          <internalNodes>
            0 -1 74 -1.9167602062225342e-02</internalNodes>
          <leafValues>
            8.7878787517547607e-01 -2.7868852019309998e-01</leafValues></_>
        <_>
          <internalNodes>
            0 -1 70 1.8523614853620529e-02</internalNodes>
          <leafValues>
            -2.9770690202713013e-01 6.4005815982818604e-01</leafValues></_>
        <_>
          <internalNodes>
            0 -1 96 3.7430429074447602e-05</internalNodes>
          <leafValues>
            -3.5727661848068237e-01 5.9436959028244019e-01</leafValues></_>
        <_>
          <internalNodes>
            0 -1 50 -8.2386806607246399e-03</internalNodes>
          <leafValues>
            6.4838761091232300e-01 -2.8599333763122559e-01</leafValues></_>
        <_>
          <internalNodes>
            0 -1 68 9.0993991761934012e-05</internalNodes>
          <leafValues>
            -4.3338429927825928e-01 5.8293938636779785e-01</leafValues></_>
        <_>
          <internalNodes>
            0 -1 22 6.7098590079694986e-04</internalNodes>
          <leafValues>
            -3.4176102280616760e-01 6.6143679618835449e-01</leafValues></_>
        <_>
          <internalNodes>
            0 -1 91 5.0524005200713873e-04</internalNodes>
          <leafValues>
            -3.1704542040824890e-01 7.2905689477920532e-01</leafValues></_></weakClassifiers></_>
    <!-- stage 16 -->
    <_>
      <maxWeakCount>4</maxWeakCount>
      <stageThreshold>-7.9932767152786255e-01</stageThreshold>
      <weakClassifiers>
        <_>
          <internalNodes>
            0 -1 40 -1.8797318916767836e-03</internalNodes>
          <leafValues>
            6.0000002384185791e-01 -4.3157893419265747e-01</leafValues></_>
        <_>
          <internalNodes>
            0 -1 95 -5.2151728596072644e-05</internalNodes>
          <leafValues>
            7.2063177824020386e-01 -3.6161562800407410e-01</leafValues></_>
        <_>
          <internalNodes>
            0 -1 69 -2.4909224521252327e-05</internalNodes>
          <leafValues>
            6.4119064807891846e-01 -4.2201167345046997e-01</leafValues></_>
        <_>
          <internalNodes>
            0 -1 27 3.0331329980981536e-05</internalNodes>
          <leafValues>
            -6.6636884212493896e-01 4.6171337366104126e-01</leafValues></_></weakClassifiers></_>
    <!-- stage 17 -->
    <_>
      <maxWeakCount>6</maxWeakCount>
      <stageThreshold>-3.3679994940757751e-01</stageThreshold>
      <weakClassifiers>
        <_>
          <internalNodes>
            0 -1 81 -3.0943024903535843e-02</internalNodes>
          <leafValues>
            1. -2.1212121844291687e-01</leafValues></_>
        <_>
          <internalNodes>
            0 -1 77 1.5223875641822815e-02</internalNodes>
          <leafValues>
            -2.2187866270542145e-01 7.8803360462188721e-01</leafValues></_>
        <_>
          <internalNodes>
            0 -1 114 6.4401924610137939e-03</internalNodes>
          <leafValues>
            2.5705486536026001e-01 -8.6759638786315918e-01</leafValues></_>
        <_>
          <internalNodes>
            0 -1 58 -3.2114549539983273e-03</internalNodes>
          <leafValues>
            8.7825721502304077e-01 -2.2635109722614288e-01</leafValues></_>
        <_>
          <internalNodes>
            0 -1 43 3.8403441431000829e-04</internalNodes>
          <leafValues>
            4.0206196904182434e-01 -5.4595041275024414e-01</leafValues></_>
        <_>
          <internalNodes>
            0 -1 0 8.2867610035464168e-04</internalNodes>
          <leafValues>
            -3.0731788277626038e-01 6.1244654655456543e-01</leafValues></_></weakClassifiers></_>
    <!-- stage 18 -->
    <_>
      <maxWeakCount>6</maxWeakCount>
      <stageThreshold>-1.6679745912551880e-01</stageThreshold>
      <weakClassifiers>
        <_>
          <internalNodes>
            0 -1 128 -2.1157233277335763e-04</internalNodes>
          <leafValues>
            -6.6666668653488159e-01 3.0693069100379944e-01</leafValues></_>
        <_>
          <internalNodes>
            0 -1 47 7.9382979311048985e-04</internalNodes>
          <leafValues>
            -2.6210674643516541e-01 8.8676697015762329e-01</leafValues></_>
        <_>
          <internalNodes>
            0 -1 78 8.4115564823150635e-04</internalNodes>
          <leafValues>
            -4.4615000486373901e-01 4.6942836046218872e-01</leafValues></_>
        <_>
          <internalNodes>
            0 -1 29 3.2113641500473022e-02</internalNodes>
          <leafValues>
            -2.5845098495483398e-01 8.0765348672866821e-01</leafValues></_>
        <_>
          <internalNodes>
            0 -1 24 -1.1304889805614948e-02</internalNodes>
          <leafValues>
            -7.6342290639877319e-01 3.9452865719795227e-01</leafValues></_>
        <_>
          <internalNodes>
            0 -1 15 -3.2504167756997049e-04</internalNodes>
          <leafValues>
            -7.1134716272354126e-01 3.4082412719726563e-01</leafValues></_></weakClassifiers></_>
    <!-- stage 19 -->
    <_>
      <maxWeakCount>6</maxWeakCount>
      <stageThreshold>-5.6067210435867310e-01</stageThreshold>
      <weakClassifiers>
        <_>
          <internalNodes>
            0 -1 97 -2.5433233007788658e-02</internalNodes>
          <leafValues>
            7.2972971200942993e-01 -2.7118644118309021e-01</leafValues></_>
        <_>
          <internalNodes>
            0 -1 32 -8.4103594417683780e-05</internalNodes>
          <leafValues>
            4.7535747289657593e-01 -3.6994323134422302e-01</leafValues></_>
        <_>
          <internalNodes>
            0 -1 86 -4.4061969965696335e-03</internalNodes>
          <leafValues>
            8.6721295118331909e-01 -2.4078442156314850e-01</leafValues></_>
        <_>
          <internalNodes>
            0 -1 66 1.0577883804216981e-03</internalNodes>
          <leafValues>
            4.8691740632057190e-01 -4.6083384752273560e-01</leafValues></_>
        <_>
          <internalNodes>
            0 -1 122 -3.8892723387107253e-04</internalNodes>
          <leafValues>
            -7.6666975021362305e-01 3.2008764147758484e-01</leafValues></_>
        <_>
          <internalNodes>
            0 -1 31 -6.9968163967132568e-02</internalNodes>
          <leafValues>
            8.9427369832992554e-01 -2.4430637061595917e-01</leafValues></_></weakClassifiers></_>
    <!-- stage 20 -->
    <_>
      <maxWeakCount>4</maxWeakCount>
      <stageThreshold>-5.7869434356689453e-01</stageThreshold>
      <weakClassifiers>
        <_>
          <internalNodes>
            0 -1 127 9.8052294924855232e-04</internalNodes>
          <leafValues>
            1.4960630238056183e-01 -8.5714286565780640e-01</leafValues></_>
        <_>
          <internalNodes>
            0 -1 44 8.6369959171861410e-04</internalNodes>
          <leafValues>
            1.7422884702682495e-01 -7.4345463514328003e-01</leafValues></_>
        <_>
          <internalNodes>
            0 -1 76 -9.7581022419035435e-04</internalNodes>
          <leafValues>
            4.1641247272491455e-01 -4.2213797569274902e-01</leafValues></_>
        <_>
          <internalNodes>
            0 -1 104 -2.3444378748536110e-03</internalNodes>
          <leafValues>
            4.3729194998741150e-01 -4.2961856722831726e-01</leafValues></_></weakClassifiers></_>
    <!-- stage 21 -->
    <_>
      <maxWeakCount>5</maxWeakCount>
      <stageThreshold>-9.8937505483627319e-01</stageThreshold>
      <weakClassifiers>
        <_>
          <internalNodes>
            0 -1 1 -3.6919575650244951e-03</internalNodes>
          <leafValues>
            -5.4545456171035767e-01 3.4831461310386658e-01</leafValues></_>
        <_>
          <internalNodes>
            0 -1 13 2.5823999749263749e-05</internalNodes>
          <leafValues>
            -4.3411880731582642e-01 4.1122946143150330e-01</leafValues></_>
        <_>
          <internalNodes>
            0 -1 116 -1.0088125709444284e-03</internalNodes>
          <leafValues>
            -6.2603861093521118e-01 3.1599763035774231e-01</leafValues></_>
        <_>
          <internalNodes>
            0 -1 16 -5.8577843010425568e-03</internalNodes>
          <leafValues>
            -8.5936057567596436e-01 2.6444259285926819e-01</leafValues></_>
        <_>
          <internalNodes>
            0 -1 119 6.2388053629547358e-04</internalNodes>
          <leafValues>
            3.8108059763908386e-01 -5.9024190902709961e-01</leafValues></_></weakClassifiers></_>
    <!-- stage 22 -->
    <_>
      <maxWeakCount>5</maxWeakCount>
      <stageThreshold>-5.2354753017425537e-01</stageThreshold>
      <weakClassifiers>
        <_>
          <internalNodes>
            0 -1 100 2.6564134750515223e-03</internalNodes>
          <leafValues>
            -4.2222222685813904e-01 5.0769233703613281e-01</leafValues></_>
        <_>
          <internalNodes>
            0 -1 105 5.4626213386654854e-03</internalNodes>
          <leafValues>
            -1.6862206161022186e-01 1.</leafValues></_>
        <_>
          <internalNodes>
            0 -1 48 2.8500694315880537e-03</internalNodes>
          <leafValues>
            -4.0716412663459778e-01 4.6686530113220215e-01</leafValues></_>
        <_>
          <internalNodes>
            0 -1 49 -1.4354311861097813e-03</internalNodes>
          <leafValues>
            8.2439273595809937e-01 -2.6174813508987427e-01</leafValues></_>
        <_>
          <internalNodes>
            0 -1 65 7.5638191774487495e-03</internalNodes>
          <leafValues>
            -1.3782040774822235e-01 1.</leafValues></_></weakClassifiers></_>
    <!-- stage 23 -->
    <_>
      <maxWeakCount>7</maxWeakCount>
      <stageThreshold>-6.9068151712417603e-01</stageThreshold>
      <weakClassifiers>
        <_>
          <internalNodes>
            0 -1 51 -4.0314238518476486e-02</internalNodes>
          <leafValues>
            5.0769233703613281e-01 -4.2222222685813904e-01</leafValues></_>
        <_>
          <internalNodes>
            0 -1 98 1.6845818608999252e-03</internalNodes>
          <leafValues>
            -2.9218709468841553e-01 6.8597620725631714e-01</leafValues></_>
        <_>
          <internalNodes>
            0 -1 67 5.0942320376634598e-04</internalNodes>
          <leafValues>
            -3.1146550178527832e-01 5.9219223260879517e-01</leafValues></_>
        <_>
          <internalNodes>
            0 -1 30 -2.5874646380543709e-03</internalNodes>
          <leafValues>
            -5.0799554586410522e-01 3.8510066270828247e-01</leafValues></_>
        <_>
          <internalNodes>
            0 -1 72 -3.6669860128313303e-04</internalNodes>
          <leafValues>
            7.7262508869171143e-01 -2.8947862982749939e-01</leafValues></_>
        <_>
          <internalNodes>
            0 -1 94 -3.5749720409512520e-03</internalNodes>
          <leafValues>
            6.9201916456222534e-01 -3.2241716980934143e-01</leafValues></_>
        <_>
          <internalNodes>
            0 -1 11 1.9735459238290787e-02</internalNodes>
          <leafValues>
            -3.6792609095573425e-01 7.4769836664199829e-01</leafValues></_></weakClassifiers></_>
    <!-- stage 24 -->
    <_>
      <maxWeakCount>4</maxWeakCount>
      <stageThreshold>-1.8157260119915009e-01</stageThreshold>
      <weakClassifiers>
        <_>
          <internalNodes>
            0 -1 90 -2.8171716257929802e-03</internalNodes>
          <leafValues>
            8.7096774578094482e-01 -2.5806450843811035e-01</leafValues></_>
        <_>
          <internalNodes>
            0 -1 89 2.3283730261027813e-03</internalNodes>
          <leafValues>
            -2.1194382011890411e-01 7.8399980068206787e-01</leafValues></_>
        <_>
          <internalNodes>
            0 -1 79 -6.4990883693099022e-03</internalNodes>
          <leafValues>
            9.4618421792984009e-01 -1.6900354623794556e-01</leafValues></_>
        <_>
          <internalNodes>
            0 -1 108 3.7019990850239992e-04</internalNodes>
          <leafValues>
            -4.9470531940460205e-01 4.5743927359580994e-01</leafValues></_></weakClassifiers></_></stages>
  <features>
    <_>
      <rects>
        <_>
          0 0 2 3 -1.</_>
        <_>
          1 0 1 3 2.</_></rects>
      <tilted>0</tilted></_>
    <_>
      <rects>
        <_>
          0 0 2 9 -1.</_>
        <_>
          0 3 2 3 3.</_></rects>
      <tilted>0</tilted></_>
    <_>
      <rects>
        <_>
          0 0 12 5 -1.</_>
        <_>
          6 0 6 5 2.</_></rects>
      <tilted>0</tilted></_>
    <_>
      <rects>
        <_>
          0 1 12 3 -1.</_>
        <_>
          6 1 6 3 2.</_></rects>
      <tilted>0</tilted></_>
    <_>
      <rects>
        <_>
          0 1 24 11 -1.</_>
        <_>
          8 1 8 11 3.</_></rects>
      <tilted>0</tilted></_>
    <_>
      <rects>
        <_>
          0 2 3 22 -1.</_>
        <_>
          1 2 1 22 3.</_></rects>
      <tilted>0</tilted></_>
    <_>
      <rects>
        <_>
          0 2 12 20 -1.</_>
        <_>
          4 2 4 20 3.</_></rects>
      <tilted>0</tilted></_>
    <_>
      <rects>
        <_>
          0 3 18 15 -1.</_>
        <_>
          6 3 6 15 3.</_></rects>
      <tilted>0</tilted></_>
    <_>
      <rects>
        <_>
          0 3 24 3 -1.</_>
        <_>
          8 3 8 3 3.</_></rects>
      <tilted>0</tilted></_>
    <_>
      <rects>
        <_>
          0 4 6 6 -1.</_>
        <_>
          2 4 2 6 3.</_></rects>
      <tilted>0</tilted></_>
    <_>
      <rects>
        <_>
          0 10 18 7 -1.</_>
        <_>
          9 10 9 7 2.</_></rects>
      <tilted>0</tilted></_>
    <_>
      <rects>
        <_>
          0 11 23 9 -1.</_>
        <_>
          0 14 23 3 3.</_></rects>
      <tilted>0</tilted></_>
    <_>
      <rects>
        <_>
          0 17 21 3 -1.</_>
        <_>
          0 18 21 1 3.</_></rects>
      <tilted>0</tilted></_>
    <_>
      <rects>
        <_>
          0 19 2 1 -1.</_>
        <_>
          1 19 1 1 2.</_></rects>
      <tilted>0</tilted></_>
    <_>
      <rects>
        <_>
          0 19 4 5 -1.</_>
        <_>
          2 19 2 5 2.</_></rects>
      <tilted>0</tilted></_>
    <_>
      <rects>
        <_>
          1 5 1 2 -1.</_>
        <_>
          1 6 1 1 2.</_></rects>
      <tilted>0</tilted></_>
    <_>
      <rects>
        <_>
          1 5 1 9 -1.</_>
        <_>
          1 8 1 3 3.</_></rects>
      <tilted>0</tilted></_>
    <_>
      <rects>
        <_>
          1 5 4 10 -1.</_>
        <_>
          1 5 2 5 2.</_>
        <_>
          3 10 2 5 2.</_></rects>
      <tilted>0</tilted></_>
    <_>
      <rects>
        <_>
          1 10 18 4 -1.</_>
        <_>
          7 10 6 4 3.</_></rects>
      <tilted>0</tilted></_>
    <_>
      <rects>
        <_>
          1 12 3 8 -1.</_>
        <_>
          2 12 1 8 3.</_></rects>
      <tilted>0</tilted></_>
    <_>
      <rects>
        <_>
          1 12 14 12 -1.</_>
        <_>
          1 12 7 6 2.</_>
        <_>
          8 18 7 6 2.</_></rects>
      <tilted>0</tilted></_>
    <_>
      <rects>
        <_>
          1 13 12 9 -1.</_>
        <_>
          5 13 4 9 3.</_></rects>
      <tilted>0</tilted></_>
    <_>
      <rects>
        <_>
          1 21 3 3 -1.</_>
        <_>
          2 21 1 3 3.</_></rects>
      <tilted>0</tilted></_>
    <_>
      <rects>
        <_>
          2 0 4 18 -1.</_>
        <_>
          4 0 2 18 2.</_></rects>
      <tilted>0</tilted></_>
    <_>
      <rects>
        <_>
          2 0 3 9 -1.</_>
        <_>
          2 3 3 3 3.</_></rects>
      <tilted>0</tilted></_>
    <_>
      <rects>
        <_>
          2 2 21 18 -1.</_>
        <_>
          2 8 21 6 3.</_></rects>
      <tilted>0</tilted></_>
    <_>
      <rects>
        <_>
          2 16 15 6 -1.</_>
        <_>
          2 18 15 2 3.</_></rects>
      <tilted>0</tilted></_>
    <_>
      <rects>
        <_>
          2 17 6 1 -1.</_>
        <_>
          5 17 3 1 2.</_></rects>
      <tilted>0</tilted></_>
    <_>
      <rects>
        <_>
          3 1 6 2 -1.</_>
        <_>
          5 1 2 2 3.</_></rects>
      <tilted>0</tilted></_>
    <_>
      <rects>
        <_>
          3 4 9 10 -1.</_>
        <_>
          6 4 3 10 3.</_></rects>
      <tilted>0</tilted></_>
    <_>
      <rects>
        <_>
          3 15 15 7 -1.</_>
        <_>
          8 15 5 7 3.</_></rects>
      <tilted>0</tilted></_>
    <_>
      <rects>
        <_>
          4 2 10 13 -1.</_>
        <_>
          9 2 5 13 2.</_></rects>
      <tilted>0</tilted></_>
    <_>
      <rects>
        <_>
          4 5 10 2 -1.</_>
        <_>
          4 5 5 1 2.</_>
        <_>
          9 6 5 1 2.</_></rects>
      <tilted>0</tilted></_>
    <_>
      <rects>
        <_>
          4 10 9 14 -1.</_>
        <_>
          7 10 3 14 3.</_></rects>
      <tilted>0</tilted></_>
    <_>
      <rects>
        <_>
          4 12 13 12 -1.</_>
        <_>
          4 16 13 4 3.</_></rects>
      <tilted>0</tilted></_>
    <_>
      <rects>
        <_>
          4 17 20 3 -1.</_>
        <_>
          4 18 20 1 3.</_></rects>
      <tilted>0</tilted></_>
    <_>
      <rects>
        <_>
          5 7 3 6 -1.</_>
        <_>
          6 7 1 6 3.</_></rects>
      <tilted>0</tilted></_>
    <_>
      <rects>
        <_>
          5 21 6 1 -1.</_>
        <_>
          7 21 2 1 3.</_></rects>
      <tilted>0</tilted></_>
    <_>
      <rects>
        <_>
          5 22 12 2 -1.</_>
        <_>
          11 22 6 2 2.</_></rects>
      <tilted>0</tilted></_>
    <_>
      <rects>
        <_>
          6 0 18 2 -1.</_>
        <_>
          12 0 6 2 3.</_></rects>
      <tilted>0</tilted></_>
    <_>
      <rects>
        <_>
          6 4 1 18 -1.</_>
        <_>
          6 13 1 9 2.</_></rects>
      <tilted>0</tilted></_>
    <_>
      <rects>
        <_>
          6 11 7 4 -1.</_>
        <_>
          6 13 7 2 2.</_></rects>
      <tilted>0</tilted></_>
    <_>
      <rects>
        <_>
          6 16 17 3 -1.</_>
        <_>
          6 17 17 1 3.</_></rects>
      <tilted>0</tilted></_>
    <_>
      <rects>
        <_>
          6 22 12 2 -1.</_>
        <_>
          6 22 6 1 2.</_>
        <_>
          12 23 6 1 2.</_></rects>
      <tilted>0</tilted></_>
    <_>
      <rects>
        <_>
          6 23 3 1 -1.</_>
        <_>
          7 23 1 1 3.</_></rects>
      <tilted>0</tilted></_>
    <_>
      <rects>
        <_>
          7 5 2 10 -1.</_>
        <_>
          7 10 2 5 2.</_></rects>
      <tilted>0</tilted></_>
    <_>
      <rects>
        <_>
          7 8 6 6 -1.</_>
        <_>
          7 10 6 2 3.</_></rects>
      <tilted>0</tilted></_>
    <_>
      <rects>
        <_>
          7 12 2 1 -1.</_>
        <_>
          8 12 1 1 2.</_></rects>
      <tilted>0</tilted></_>
    <_>
      <rects>
        <_>
          7 12 6 10 -1.</_>
        <_>
          7 17 6 5 2.</_></rects>
      <tilted>0</tilted></_>
    <_>
      <rects>
        <_>
          7 21 1 3 -1.</_>
        <_>
          7 22 1 1 3.</_></rects>
      <tilted>0</tilted></_>
    <_>
      <rects>
        <_>
          8 0 9 8 -1.</_>
        <_>
          11 0 3 8 3.</_></rects>
      <tilted>0</tilted></_>
    <_>
      <rects>
        <_>
          8 3 11 14 -1.</_>
        <_>
          8 10 11 7 2.</_></rects>
      <tilted>0</tilted></_>
    <_>
      <rects>
        <_>
          8 4 1 4 -1.</_>
        <_>
          8 6 1 2 2.</_></rects>
      <tilted>0</tilted></_>
    <_>
      <rects>
        <_>
          8 4 16 17 -1.</_>
        <_>
          16 4 8 17 2.</_></rects>
      <tilted>0</tilted></_>
    <_>
      <rects>
        <_>
          8 8 1 2 -1.</_>
        <_>
          8 9 1 1 2.</_></rects>
      <tilted>0</tilted></_>
    <_>
      <rects>
        <_>
          8 10 13 14 -1.</_>
        <_>
          8 17 13 7 2.</_></rects>
      <tilted>0</tilted></_>
    <_>
      <rects>
        <_>
          8 12 6 2 -1.</_>
        <_>
          10 12 2 2 3.</_></rects>
      <tilted>0</tilted></_>
    <_>
      <rects>
        <_>
          8 12 3 12 -1.</_>
        <_>
          8 18 3 6 2.</_></rects>
      <tilted>0</tilted></_>
    <_>
      <rects>
        <_>
          8 13 4 2 -1.</_>
        <_>
          8 13 2 1 2.</_>
        <_>
          10 14 2 1 2.</_></rects>
      <tilted>0</tilted></_>
    <_>
      <rects>
        <_>
          8 14 15 4 -1.</_>
        <_>
          13 14 5 4 3.</_></rects>
      <tilted>0</tilted></_>
    <_>
      <rects>
        <_>
          8 17 6 3 -1.</_>
        <_>
          8 18 6 1 3.</_></rects>
      <tilted>0</tilted></_>
    <_>
      <rects>
        <_>
          8 19 14 2 -1.</_>
        <_>
          8 20 14 1 2.</_></rects>
      <tilted>0</tilted></_>
    <_>
      <rects>
        <_>
          8 22 12 2 -1.</_>
        <_>
          8 23 12 1 2.</_></rects>
      <tilted>0</tilted></_>
    <_>
      <rects>
        <_>
          9 1 9 5 -1.</_>
        <_>
          12 1 3 5 3.</_></rects>
      <tilted>0</tilted></_>
    <_>
      <rects>
        <_>
          9 5 4 16 -1.</_>
        <_>
          9 5 2 8 2.</_>
        <_>
          11 13 2 8 2.</_></rects>
      <tilted>0</tilted></_>
    <_>
      <rects>
        <_>
          9 8 11 3 -1.</_>
        <_>
          9 9 11 1 3.</_></rects>
      <tilted>0</tilted></_>
    <_>
      <rects>
        <_>
          9 15 1 4 -1.</_>
        <_>
          9 17 1 2 2.</_></rects>
      <tilted>0</tilted></_>
    <_>
      <rects>
        <_>
          9 16 2 2 -1.</_>
        <_>
          9 16 1 1 2.</_>
        <_>
          10 17 1 1 2.</_></rects>
      <tilted>0</tilted></_>
    <_>
      <rects>
        <_>
          9 18 6 2 -1.</_>
        <_>
          9 18 3 1 2.</_>
        <_>
          12 19 3 1 2.</_></rects>
      <tilted>0</tilted></_>
    <_>
      <rects>
        <_>
          9 21 2 2 -1.</_>
        <_>
          9 21 1 1 2.</_>
        <_>
          10 22 1 1 2.</_></rects>
      <tilted>0</tilted></_>
    <_>
      <rects>
        <_>
          10 0 6 24 -1.</_>
        <_>
          12 0 2 24 3.</_></rects>
      <tilted>0</tilted></_>
    <_>
      <rects>
        <_>
          10 3 9 2 -1.</_>
        <_>
          13 3 3 2 3.</_></rects>
      <tilted>0</tilted></_>
    <_>
      <rects>
        <_>
          10 7 2 1 -1.</_>
        <_>
          11 7 1 1 2.</_></rects>
      <tilted>0</tilted></_>
    <_>
      <rects>
        <_>
          10 7 6 6 -1.</_>
        <_>
          12 7 2 6 3.</_></rects>
      <tilted>0</tilted></_>
    <_>
      <rects>
        <_>
          10 7 6 14 -1.</_>
        <_>
          12 7 2 14 3.</_></rects>
      <tilted>0</tilted></_>
    <_>
      <rects>
        <_>
          10 11 3 6 -1.</_>
        <_>
          11 11 1 6 3.</_></rects>
      <tilted>0</tilted></_>
    <_>
      <rects>
        <_>
          10 21 12 3 -1.</_>
        <_>
          10 22 12 1 3.</_></rects>
      <tilted>0</tilted></_>
    <_>
      <rects>
        <_>
          11 5 6 9 -1.</_>
        <_>
          13 5 2 9 3.</_></rects>
      <tilted>0</tilted></_>
    <_>
      <rects>
        <_>
          11 6 3 5 -1.</_>
        <_>
          12 6 1 5 3.</_></rects>
      <tilted>0</tilted></_>
    <_>
      <rects>
        <_>
          11 6 2 10 -1.</_>
        <_>
          11 6 1 5 2.</_>
        <_>
          12 11 1 5 2.</_></rects>
      <tilted>0</tilted></_>
    <_>
      <rects>
        <_>
          11 6 9 4 -1.</_>
        <_>
          14 6 3 4 3.</_></rects>
      <tilted>0</tilted></_>
    <_>
      <rects>
        <_>
          11 8 6 16 -1.</_>
        <_>
          13 8 2 16 3.</_></rects>
      <tilted>0</tilted></_>
    <_>
      <rects>
        <_>
          11 8 7 6 -1.</_>
        <_>
          11 10 7 2 3.</_></rects>
      <tilted>0</tilted></_>
    <_>
      <rects>
        <_>
          11 11 3 1 -1.</_>
        <_>
          12 11 1 1 3.</_></rects>
      <tilted>0</tilted></_>
    <_>
      <rects>
        <_>
          11 17 3 3 -1.</_>
        <_>
          11 18 3 1 3.</_></rects>
      <tilted>0</tilted></_>
    <_>
      <rects>
        <_>
          12 0 12 1 -1.</_>
        <_>
          16 0 4 1 3.</_></rects>
      <tilted>0</tilted></_>
    <_>
      <rects>
        <_>
          12 3 2 9 -1.</_>
        <_>
          13 3 1 9 2.</_></rects>
      <tilted>0</tilted></_>
    <_>
      <rects>
        <_>
          12 3 9 4 -1.</_>
        <_>
          15 3 3 4 3.</_></rects>
      <tilted>0</tilted></_>
    <_>
      <rects>
        <_>
          12 9 4 4 -1.</_>
        <_>
          14 9 2 4 2.</_></rects>
      <tilted>0</tilted></_>
    <_>
      <rects>
        <_>
          12 10 3 2 -1.</_>
        <_>
          13 10 1 2 3.</_></rects>
      <tilted>0</tilted></_>
    <_>
      <rects>
        <_>
          12 10 3 4 -1.</_>
        <_>
          13 10 1 4 3.</_></rects>
      <tilted>0</tilted></_>
    <_>
      <rects>
        <_>
          13 10 1 3 -1.</_>
        <_>
          13 11 1 1 3.</_></rects>
      <tilted>0</tilted></_>
    <_>
      <rects>
        <_>
          13 10 7 9 -1.</_>
        <_>
          13 13 7 3 3.</_></rects>
      <tilted>0</tilted></_>
    <_>
      <rects>
        <_>
          13 11 3 4 -1.</_>
        <_>
          14 11 1 4 3.</_></rects>
      <tilted>0</tilted></_>
    <_>
      <rects>
        <_>
          13 11 2 6 -1.</_>
        <_>
          13 13 2 2 3.</_></rects>
      <tilted>0</tilted></_>
    <_>
      <rects>
        <_>
          13 15 2 2 -1.</_>
        <_>
          13 16 2 1 2.</_></rects>
      <tilted>0</tilted></_>
    <_>
      <rects>
        <_>
          13 20 2 1 -1.</_>
        <_>
          14 20 1 1 2.</_></rects>
      <tilted>0</tilted></_>
    <_>
      <rects>
        <_>
          14 6 8 9 -1.</_>
        <_>
          18 6 4 9 2.</_></rects>
      <tilted>0</tilted></_>
    <_>
      <rects>
        <_>
          14 22 8 2 -1.</_>
        <_>
          18 22 4 2 2.</_></rects>
      <tilted>0</tilted></_>
    <_>
      <rects>
        <_>
          15 0 9 19 -1.</_>
        <_>
          18 0 3 19 3.</_></rects>
      <tilted>0</tilted></_>
    <_>
      <rects>
        <_>
          15 11 9 4 -1.</_>
        <_>
          18 11 3 4 3.</_></rects>
      <tilted>0</tilted></_>
    <_>
      <rects>
        <_>
          16 0 1 3 -1.</_>
        <_>
          16 1 1 1 3.</_></rects>
      <tilted>0</tilted></_>
    <_>
      <rects>
        <_>
          16 0 8 11 -1.</_>
        <_>
          20 0 4 11 2.</_></rects>
      <tilted>0</tilted></_>
    <_>
      <rects>
        <_>
          16 1 8 13 -1.</_>
        <_>
          20 1 4 13 2.</_></rects>
      <tilted>0</tilted></_>
    <_>
      <rects>
        <_>
          16 6 8 2 -1.</_>
        <_>
          20 6 4 2 2.</_></rects>
      <tilted>0</tilted></_>
    <_>
      <rects>
        <_>
          16 13 3 7 -1.</_>
        <_>
          17 13 1 7 3.</_></rects>
      <tilted>0</tilted></_>
    <_>
      <rects>
        <_>
          17 7 6 6 -1.</_>
        <_>
          19 7 2 6 3.</_></rects>
      <tilted>0</tilted></_>
    <_>
      <rects>
        <_>
          17 8 6 4 -1.</_>
        <_>
          20 8 3 4 2.</_></rects>
      <tilted>0</tilted></_>
    <_>
      <rects>
        <_>
          18 1 6 7 -1.</_>
        <_>
          20 1 2 7 3.</_></rects>
      <tilted>0</tilted></_>
    <_>
      <rects>
        <_>
          18 5 6 19 -1.</_>
        <_>
          20 5 2 19 3.</_></rects>
      <tilted>0</tilted></_>
    <_>
      <rects>
        <_>
          18 14 3 1 -1.</_>
        <_>
          19 14 1 1 3.</_></rects>
      <tilted>0</tilted></_>
    <_>
      <rects>
        <_>
          18 19 2 4 -1.</_>
        <_>
          19 19 1 4 2.</_></rects>
      <tilted>0</tilted></_>
    <_>
      <rects>
        <_>
          19 1 4 10 -1.</_>
        <_>
          21 1 2 10 2.</_></rects>
      <tilted>0</tilted></_>
    <_>
      <rects>
        <_>
          19 6 3 9 -1.</_>
        <_>
          20 6 1 9 3.</_></rects>
      <tilted>0</tilted></_>
    <_>
      <rects>
        <_>
          19 11 4 8 -1.</_>
        <_>
          19 11 2 4 2.</_>
        <_>
          21 15 2 4 2.</_></rects>
      <tilted>0</tilted></_>
    <_>
      <rects>
        <_>
          19 12 2 1 -1.</_>
        <_>
          20 12 1 1 2.</_></rects>
      <tilted>0</tilted></_>
    <_>
      <rects>
        <_>
          19 15 3 3 -1.</_>
        <_>
          19 16 3 1 3.</_></rects>
      <tilted>0</tilted></_>
    <_>
      <rects>
        <_>
          20 0 2 22 -1.</_>
        <_>
          20 0 1 11 2.</_>
        <_>
          21 11 1 11 2.</_></rects>
      <tilted>0</tilted></_>
    <_>
      <rects>
        <_>
          20 1 4 23 -1.</_>
        <_>
          22 1 2 23 2.</_></rects>
      <tilted>0</tilted></_>
    <_>
      <rects>
        <_>
          20 3 3 3 -1.</_>
        <_>
          20 4 3 1 3.</_></rects>
      <tilted>0</tilted></_>
    <_>
      <rects>
        <_>
          20 9 4 12 -1.</_>
        <_>
          22 9 2 12 2.</_></rects>
      <tilted>0</tilted></_>
    <_>
      <rects>
        <_>
          20 10 4 6 -1.</_>
        <_>
          20 12 4 2 3.</_></rects>
      <tilted>0</tilted></_>
    <_>
      <rects>
        <_>
          20 13 2 4 -1.</_>
        <_>
          20 13 1 2 2.</_>
        <_>
          21 15 1 2 2.</_></rects>
      <tilted>0</tilted></_>
    <_>
      <rects>
        <_>
          20 14 3 4 -1.</_>
        <_>
          21 14 1 4 3.</_></rects>
      <tilted>0</tilted></_>
    <_>
      <rects>
        <_>
          20 14 3 9 -1.</_>
        <_>
          21 14 1 9 3.</_></rects>
      <tilted>0</tilted></_>
    <_>
      <rects>
        <_>
          21 7 3 14 -1.</_>
        <_>
          22 7 1 14 3.</_></rects>
      <tilted>0</tilted></_>
    <_>
      <rects>
        <_>
          21 17 3 2 -1.</_>
        <_>
          22 17 1 2 3.</_></rects>
      <tilted>0</tilted></_>
    <_>
      <rects>
        <_>
          22 0 2 2 -1.</_>
        <_>
          23 0 1 2 2.</_></rects>
      <tilted>0</tilted></_>
    <_>
      <rects>
        <_>
          22 9 1 2 -1.</_>
        <_>
          22 10 1 1 2.</_></rects>
      <tilted>0</tilted></_>
    <_>
      <rects>
        <_>
          22 9 2 6 -1.</_>
        <_>
          22 11 2 2 3.</_></rects>
      <tilted>0</tilted></_>
    <_>
      <rects>
        <_>
          23 1 1 9 -1.</_>
        <_>
          23 4 1 3 3.</_></rects>
      <tilted>0</tilted></_>
    <_>
      <rects>
        <_>
          23 6 1 3 -1.</_>
        <_>
          23 7 1 1 3.</_></rects>
      <tilted>0</tilted></_></features></cascade>
</opencv_storage>
