<?xml version="1.0"?>
<opencv_storage>
<stage23>
  <maxWeakCount>7</maxWeakCount>
  <stageThreshold>-6.9068151712417603e-01</stageThreshold>
  <weakClassifiers>
    <_>
      <internalNodes>
        0 -1 92424 -4.0314238518476486e-02</internalNodes>
      <leafValues>
        5.0769233703613281e-01 -4.2222222685813904e-01</leafValues></_>
    <_>
      <internalNodes>
        0 -1 139218 1.6845818608999252e-03</internalNodes>
      <leafValues>
        -2.9218709468841553e-01 6.8597620725631714e-01</leafValues></_>
    <_>
      <internalNodes>
        0 -1 105885 5.0942320376634598e-04</internalNodes>
      <leafValues>
        -3.1146550178527832e-01 5.9219223260879517e-01</leafValues></_>
    <_>
      <internalNodes>
        0 -1 47979 -2.5874646380543709e-03</internalNodes>
      <leafValues>
        -5.0799554586410522e-01 3.8510066270828247e-01</leafValues></_>
    <_>
      <internalNodes>
        0 -1 110587 -3.6669860128313303e-04</internalNodes>
      <leafValues>
        7.7262508869171143e-01 -2.8947862982749939e-01</leafValues></_>
    <_>
      <internalNodes>
        0 -1 132120 -3.5749720409512520e-03</internalNodes>
      <leafValues>
        6.9201916456222534e-01 -3.2241716980934143e-01</leafValues></_>
    <_>
      <internalNodes>
        0 -1 9993 1.9735459238290787e-02</internalNodes>
      <leafValues>
        -3.6792609095573425e-01 7.4769836664199829e-01</leafValues></_></weakClassifiers></stage23>
</opencv_storage>
