<?xml version="1.0"?>
<opencv_storage>
<stage7>
  <maxWeakCount>5</maxWeakCount>
  <stageThreshold>-4.6356147504411638e-04</stageThreshold>
  <weakClassifiers>
    <_>
      <internalNodes>
        0 -1 2415 1.6692368313670158e-02</internalNodes>
      <leafValues>
        -4.7252747416496277e-01 5.9375000000000000e-01</leafValues></_>
    <_>
      <internalNodes>
        0 -1 158975 -4.9123093485832214e-03</internalNodes>
      <leafValues>
        6.2906253337860107e-01 -4.0689036250114441e-01</leafValues></_>
    <_>
      <internalNodes>
        0 -1 96011 1.0231760144233704e-01</internalNodes>
      <leafValues>
        -2.8031831979751587e-01 8.1819856166839600e-01</leafValues></_>
    <_>
      <internalNodes>
        0 -1 99496 1.7608543566893786e-04</internalNodes>
      <leafValues>
        -5.1301681995391846e-01 5.7537245750427246e-01</leafValues></_>
    <_>
      <internalNodes>
        0 -1 150402 -3.2628183253109455e-03</internalNodes>
      <leafValues>
        6.6672331094741821e-01 -4.5205277204513550e-01</leafValues></_></weakClassifiers></stage7>
</opencv_storage>
