<?xml version="1.0"?>
<opencv_storage>
<stage19>
  <maxWeakCount>6</maxWeakCount>
  <stageThreshold>-5.6067210435867310e-01</stageThreshold>
  <weakClassifiers>
    <_>
      <internalNodes>
        0 -1 136353 -2.5433233007788658e-02</internalNodes>
      <leafValues>
        7.2972971200942993e-01 -2.7118644118309021e-01</leafValues></_>
    <_>
      <internalNodes>
        0 -1 53808 -8.4103594417683780e-05</internalNodes>
      <leafValues>
        4.7535747289657593e-01 -3.6994323134422302e-01</leafValues></_>
    <_>
      <internalNodes>
        0 -1 122949 -4.4061969965696335e-03</internalNodes>
      <leafValues>
        8.6721295118331909e-01 -2.4078442156314850e-01</leafValues></_>
    <_>
      <internalNodes>
        0 -1 105646 1.0577883804216981e-03</internalNodes>
      <leafValues>
        4.8691740632057190e-01 -4.6083384752273560e-01</leafValues></_>
    <_>
      <internalNodes>
        0 -1 159291 -3.8892723387107253e-04</internalNodes>
      <leafValues>
        -7.6666975021362305e-01 3.2008764147758484e-01</leafValues></_>
    <_>
      <internalNodes>
        0 -1 51563 -6.9968163967132568e-02</internalNodes>
      <leafValues>
        8.9427369832992554e-01 -2.4430637061595917e-01</leafValues></_></weakClassifiers></stage19>
</opencv_storage>
