<?xml version="1.0"?>
<opencv_storage>
<stage0>
  <maxWeakCount>6</maxWeakCount>
  <stageThreshold>-8.1262201070785522e-01</stageThreshold>
  <weakClassifiers>
    <_>
      <internalNodes>
        0 -1 1489 6.0047041624784470e-03</internalNodes>
      <leafValues>
        -5.1515150070190430e-01 8.2142859697341919e-01</leafValues></_>
    <_>
      <internalNodes>
        0 -1 120792 -2.1269025746732950e-03</internalNodes>
      <leafValues>
        -6.4308059215545654e-01 4.4868183135986328e-01</leafValues></_>
    <_>
      <internalNodes>
        0 -1 21805 -3.2045990228652954e-02</internalNodes>
      <leafValues>
        8.6562490463256836e-01 -3.5385659337043762e-01</leafValues></_>
    <_>
      <internalNodes>
        0 -1 79879 -4.1230516508221626e-03</internalNodes>
      <leafValues>
        -5.7865643501281738e-01 5.2842819690704346e-01</leafValues></_>
    <_>
      <internalNodes>
        0 -1 3627 2.4790104478597641e-02</internalNodes>
      <leafValues>
        -3.4202051162719727e-01 9.6084803342819214e-01</leafValues></_>
    <_>
      <internalNodes>
        0 -1 59726 -1.0623008012771606e-02</internalNodes>
      <leafValues>
        -8.2991957664489746e-01 5.2838116884231567e-01</leafValues></_></weakClassifiers></stage0>
</opencv_storage>
